digraph Tree {
node [shape=box, fontname="helvetica"] ;
edge [fontname="helvetica"] ;
0 [label="X[15] <= 31.917\nentropy = 1.0\nsamples = 305\nvalue = [231.654, 241.664]"] ;
1 [label="X[39] <= 10270.5\nentropy = 0.981\nsamples = 253\nvalue = [159.928, 222.041]"] ;
0 -> 1 [labeldistance=2.5, labelangle=45, headlabel="True"] ;
2 [label="X[14] <= 5.917\nentropy = 0.991\nsamples = 234\nvalue = [157.02, 196.223]"] ;
1 -> 2 ;
3 [label="X[23] <= 85.917\nentropy = 0.233\nsamples = 22\nvalue = [26.17, 1.033]"] ;
2 -> 3 ;
4 [label="entropy = 0.0\nsamples = 20\nvalue = [25.201, 0.0]"] ;
3 -> 4 ;
5 [label="X[39] <= 10023.75\nentropy = 0.999\nsamples = 2\nvalue = [0.969, 1.033]"] ;
3 -> 5 ;
6 [label="entropy = 0.0\nsamples = 1\nvalue = [0.969, 0.0]"] ;
5 -> 6 ;
7 [label="entropy = -0.0\nsamples = 1\nvalue = [0.0, 1.033]"] ;
5 -> 7 ;
8 [label="X[33] <= -189.216\nentropy = 0.972\nsamples = 212\nvalue = [130.85, 195.19]"] ;
2 -> 8 ;
9 [label="X[27] <= 0.718\nentropy = 0.522\nsamples = 8\nvalue = [15.508, 2.066]"] ;
8 -> 9 ;
10 [label="entropy = 0.0\nsamples = 1\nvalue = [0.0, 2.066]"] ;
9 -> 10 ;
11 [label="entropy = -0.0\nsamples = 7\nvalue = [15.508, 0.0]"] ;
9 -> 11 ;
12 [label="X[22] <= 107.0\nentropy = 0.954\nsamples = 204\nvalue = [115.342, 193.124]"] ;
8 -> 12 ;
13 [label="X[27] <= 1.279\nentropy = 0.876\nsamples = 146\nvalue = [65.91, 156.978]"] ;
12 -> 13 ;
14 [label="X[2] <= 29.917\nentropy = 0.827\nsamples = 139\nvalue = [55.248, 156.978]"] ;
13 -> 14 ;
15 [label="entropy = 0.471\nsamples = 45\nvalue = [7.754, 69.194]"] ;
14 -> 15 ;
16 [label="entropy = 0.935\nsamples = 94\nvalue = [47.494, 87.784]"] ;
14 -> 16 ;
17 [label="entropy = -0.0\nsamples = 7\nvalue = [10.662, 0.0]"] ;
13 -> 17 ;
18 [label="X[28] <= 262.5\nentropy = 0.983\nsamples = 58\nvalue = [49.432, 36.146]"] ;
12 -> 18 ;
19 [label="X[26] <= 1.135\nentropy = 0.997\nsamples = 44\nvalue = [31.016, 35.114]"] ;
18 -> 19 ;
20 [label="entropy = 0.976\nsamples = 40\nvalue = [24.232, 35.114]"] ;
19 -> 20 ;
21 [label="entropy = 0.0\nsamples = 4\nvalue = [6.785, 0.0]"] ;
19 -> 21 ;
22 [label="X[26] <= 0.459\nentropy = 0.299\nsamples = 14\nvalue = [18.416, 1.033]"] ;
18 -> 22 ;
23 [label="entropy = 0.0\nsamples = 1\nvalue = [0.0, 1.033]"] ;
22 -> 23 ;
24 [label="entropy = 0.0\nsamples = 13\nvalue = [18.416, 0.0]"] ;
22 -> 24 ;
25 [label="X[5] <= 11.0\nentropy = 0.473\nsamples = 19\nvalue = [2.908, 25.819]"] ;
1 -> 25 ;
26 [label="entropy = 0.0\nsamples = 1\nvalue = [0.969, 0.0]"] ;
25 -> 26 ;
27 [label="X[36] <= 10278.0\nentropy = 0.365\nsamples = 18\nvalue = [1.939, 25.819]"] ;
25 -> 27 ;
28 [label="X[42] <= 267.5\nentropy = 0.664\nsamples = 8\nvalue = [1.939, 9.295]"] ;
27 -> 28 ;
29 [label="X[12] <= 13.0\nentropy = 0.932\nsamples = 3\nvalue = [1.939, 1.033]"] ;
28 -> 29 ;
30 [label="entropy = 0.0\nsamples = 1\nvalue = [0.0, 1.033]"] ;
29 -> 30 ;
31 [label="entropy = 0.0\nsamples = 2\nvalue = [1.939, 0.0]"] ;
29 -> 31 ;
32 [label="entropy = 0.0\nsamples = 5\nvalue = [0.0, 8.262]"] ;
28 -> 32 ;
33 [label="entropy = -0.0\nsamples = 10\nvalue = [0.0, 16.524]"] ;
27 -> 33 ;
34 [label="X[30] <= -201.25\nentropy = 0.751\nsamples = 52\nvalue = [71.725, 19.622]"] ;
0 -> 34 [labeldistance=2.5, labelangle=-45, headlabel="False"] ;
35 [label="X[6] <= 63.167\nentropy = 0.961\nsamples = 12\nvalue = [9.693, 15.491]"] ;
34 -> 35 ;
36 [label="X[9] <= 46.75\nentropy = 0.88\nsamples = 8\nvalue = [9.693, 4.131]"] ;
35 -> 36 ;
37 [label="entropy = 0.0\nsamples = 1\nvalue = [0.0, 4.131]"] ;
36 -> 37 ;
38 [label="entropy = 0.0\nsamples = 7\nvalue = [9.693, 0.0]"] ;
36 -> 38 ;
39 [label="entropy = 0.0\nsamples = 4\nvalue = [0.0, 11.36]"] ;
35 -> 39 ;
40 [label="X[22] <= 21.083\nentropy = 0.337\nsamples = 40\nvalue = [62.033, 4.131]"] ;
34 -> 40 ;
41 [label="entropy = 0.0\nsamples = 1\nvalue = [0.0, 2.066]"] ;
40 -> 41 ;
42 [label="X[5] <= 61.083\nentropy = 0.205\nsamples = 39\nvalue = [62.033, 2.066]"] ;
40 -> 42 ;
43 [label="X[5] <= 58.833\nentropy = 0.487\nsamples = 14\nvalue = [17.447, 2.066]"] ;
42 -> 43 ;
44 [label="X[19] <= 83.333\nentropy = 0.311\nsamples = 13\nvalue = [17.447, 1.033]"] ;
43 -> 44 ;
45 [label="entropy = 0.0\nsamples = 12\nvalue = [17.447, 0.0]"] ;
44 -> 45 ;
46 [label="entropy = -0.0\nsamples = 1\nvalue = [0.0, 1.033]"] ;
44 -> 46 ;
47 [label="entropy = -0.0\nsamples = 1\nvalue = [0.0, 1.033]"] ;
43 -> 47 ;
48 [label="entropy = -0.0\nsamples = 25\nvalue = [44.586, 0.0]"] ;
42 -> 48 ;
}
